{
    "version": "0.7.0",
    "metadata": {
        "date": {
            "year": 2026,
            "month": 6,
            "day": 17,
            "hour": 13,
            "minute": 50,
            "second": 58
        },
        "loudness": -30.342275619506836,
        "gain": 0.9084814062188787
    },
    "architecture": "ParametricWaveNet",
    "config": {
        "layers": [
            {
                "input_size": 1,
                "condition_size": 1,
                "head": {
                    "out_channels": 1,
                    "kernel_size": 16,
                    "bias": true
                },
                "channels": 8,
                "kernel_sizes": [
                    6,
                    6,
                    6,
                    6,
                    6,
                    6,
                    6,
                    6,
                    6,
                    6,
                    6,
                    6,
                    6,
                    6,
                    15,
                    15,
                    6,
                    6,
                    6,
                    6,
                    6,
                    6,
                    6
                ],
                "dilations": [
                    1,
                    3,
                    7,
                    17,
                    41,
                    101,
                    239,
                    1,
                    3,
                    7,
                    17,
                    41,
                    101,
                    239,
                    1,
                    13,
                    1,
                    3,
                    7,
                    17,
                    41,
                    101,
                    239
                ],
                "activation": [
                    {
                        "type": "LeakyReLU",
                        "negative_slope": 0.01
                    },
                    {
                        "type": "LeakyReLU",
                        "negative_slope": 0.01
                    },
                    {
                        "type": "LeakyReLU",
                        "negative_slope": 0.01
                    },
                    {
                        "type": "LeakyReLU",
                        "negative_slope": 0.01
                    },
                    {
                        "type": "LeakyReLU",
                        "negative_slope": 0.01
                    },
                    {
                        "type": "LeakyReLU",
                        "negative_slope": 0.01
                    },
                    {
                        "type": "LeakyReLU",
                        "negative_slope": 0.01
                    },
                    {
                        "type": "LeakyReLU",
                        "negative_slope": 0.01
                    },
                    {
                        "type": "LeakyReLU",
                        "negative_slope": 0.01
                    },
                    {
                        "type": "LeakyReLU",
                        "negative_slope": 0.01
                    },
                    {
                        "type": "LeakyReLU",
                        "negative_slope": 0.01
                    },
                    {
                        "type": "LeakyReLU",
                        "negative_slope": 0.01
                    },
                    {
                        "type": "LeakyReLU",
                        "negative_slope": 0.01
                    },
                    {
                        "type": "LeakyReLU",
                        "negative_slope": 0.01
                    },
                    {
                        "type": "LeakyReLU",
                        "negative_slope": 0.01
                    },
                    {
                        "type": "LeakyReLU",
                        "negative_slope": 0.01
                    },
                    {
                        "type": "LeakyReLU",
                        "negative_slope": 0.01
                    },
                    {
                        "type": "LeakyReLU",
                        "negative_slope": 0.01
                    },
                    {
                        "type": "LeakyReLU",
                        "negative_slope": 0.01
                    },
                    {
                        "type": "LeakyReLU",
                        "negative_slope": 0.01
                    },
                    {
                        "type": "LeakyReLU",
                        "negative_slope": 0.01
                    },
                    {
                        "type": "LeakyReLU",
                        "negative_slope": 0.01
                    },
                    {
                        "type": "LeakyReLU",
                        "negative_slope": 0.01
                    }
                ],
                "bottleneck": 8,
                "head1x1": {
                    "active": false,
                    "out_channels": 1,
                    "groups": 1
                },
                "layer1x1": {
                    "active": true,
                    "groups": 1
                },
                "groups_input": 1,
                "groups_input_mixin": 1,
                "conv_pre_film": {
                    "active": false,
                    "shift": true,
                    "groups": 1
                },
                "conv_post_film": {
                    "active": false,
                    "shift": true,
                    "groups": 1
                },
                "input_mixin_pre_film": {
                    "active": false,
                    "shift": true,
                    "groups": 1
                },
                "input_mixin_post_film": {
                    "active": false,
                    "shift": true,
                    "groups": 1
                },
                "activation_pre_film": {
                    "active": false,
                    "shift": true,
                    "groups": 1
                },
                "activation_post_film": {
                    "active": false,
                    "shift": true,
                    "groups": 1
                },
                "layer1x1_post_film": {
                    "active": false,
                    "shift": true,
                    "groups": 1
                },
                "head1x1_post_film": {
                    "active": false,
                    "shift": true,
                    "groups": 1
                },
                "gating_mode": [
                    "none",
                    "none",
                    "none",
                    "none",
                    "none",
                    "none",
                    "none",
                    "none",
                    "none",
                    "none",
                    "none",
                    "none",
                    "none",
                    "none",
                    "none",
                    "none",
                    "none",
                    "none",
                    "none",
                    "none",
                    "none",
                    "none",
                    "none"
                ],
                "secondary_activation": [
                    null,
                    null,
                    null,
                    null,
                    null,
                    null,
                    null,
                    null,
                    null,
                    null,
                    null,
                    null,
                    null,
                    null,
                    null,
                    null,
                    null,
                    null,
                    null,
                    null,
                    null,
                    null,
                    null
                ],
                "slimmable": null
            }
        ],
        "head": null,
        "head_scale": 0.01,
        "params": [
            {
                "name": "Gain",
                "min": 0.0,
                "max": 10.0,
                "default": 5.0
            },
            {
                "name": "Bright",
                "min": 0.0,
                "max": 1.0,
                "default": 0.5
            }
        ]
    },
    "weights": [
        -0.007486820220947266,
        0.5364435911178589,
        -0.8230451345443726,
        -0.7359390258789062,
        -0.3851543664932251,
        0.26815736293792725,
        -0.019813179969787598,
        0.7928894758224487,
        -0.01280909962952137,
        0.03819353133440018,
        -0.043620698153972626,
        -0.028371769934892654,
        -0.1378926783800125,
        -0.0955921858549118,
        -0.05949927866458893,
        0.005346778780221939,
        0.05706172063946724,
        0.08660583198070526,
        -0.09785236418247223,
        -0.06285364180803299,
        0.052425872534513474,
        0.11985617130994797,
        -0.02970469556748867,
        0.10800949484109879,
        -0.023264814168214798,
        0.015272949822247028,
        0.1306942254304886,
        -0.13389767706394196,
        -0.09086596965789795,
        -0.036541253328323364,
        -0.056262776255607605,
        0.12470777332782745,
        -0.09355667233467102,
        -0.06644332408905029,
        -0.10084006190299988,
        -0.13518093526363373,
        -0.08425568044185638,
        0.12407229095697403,
        0.06440607458353043,
        0.0699564516544342,
        0.00759093789383769,
        -0.07399948686361313,
        0.02441970445215702,
        -0.13476721942424774,
        -0.10429345071315765,
        -0.0744103416800499,
        0.09106804430484772,
        0.08462817966938019,
        -0.06401299685239792,
        -0.005208043847233057,
        0.09231263399124146,
        0.1434907466173172,
        0.05728500708937645,
        0.019498974084854126,
        0.09677636623382568,
        -0.08498629182577133,
        0.026896443217992783,
        -0.11190570890903473,
        -0.10003836452960968,
        -0.07456241548061371,
        0.06530885398387909,
        0.058046855032444,
        -0.08549872040748596,
        0.04360540211200714,
        0.07923728227615356,
        -0.01821790635585785,
        0.005511031020432711,
        0.033443693071603775,
        0.0895436480641365,
        0.13859207928180695,
        -0.11122992634773254,
        -0.05289534851908684,
        0.05672609061002731,
        0.11959080398082733,
        0.1256036013364792,
        0.12735722959041595,
        0.0287252739071846,
        -0.1255134493112564,
        0.013277973048388958,
        -0.0902983546257019,
        -0.13451598584651947,
        0.1282428354024887,
        0.109748475253582,
        -0.14398075640201569,
        0.027015957981348038,
        -0.024315107613801956,
        -0.023752355948090553,
        -0.0660715103149414,
        0.0555059015750885,
        -0.08549164980649948,
        0.05291290208697319,
        0.07299267500638962,
        0.10332716256380081,
        0.05396942421793938,
        -0.14285597205162048,
        -0.0936313271522522,
        0.07206991314888,
        0.030210047960281372,
        -0.11259542405605316,
        -0.08311238139867783,
        0.13578546047210693,
        0.09725723415613174,
        -0.06293480843305588,
        -0.03632757067680359,
        -0.13749569654464722,
        -0.002594343386590481,
        -0.10869468748569489,
        -0.11133574694395065,
        -0.007952943444252014,
        0.02167157083749771,
        -0.0591106042265892,
        0.08564667403697968,
        -0.08783505111932755,
        0.13096758723258972,
        0.09891451150178909,
        -0.1217174082994461,
        -0.03592335805296898,
        0.006512889638543129,
        0.021059006452560425,
        0.034233156591653824,
        0.056642141193151474,
        0.008645843714475632,
        -0.07042644917964935,
        0.06829895079135895,
        -0.13845564424991608,
        -0.08554983884096146,
        -0.036132000386714935,
        -0.07030875235795975,
        -0.05049409717321396,
        -0.11830219626426697,
        -0.030702786520123482,
        0.030853085219860077,
        -0.09403098374605179,
        -0.007407311350107193,
        0.10332416743040085,
        -0.01483793742954731,
        0.004011460579931736,
        -0.012451843358576298,
        0.02921123430132866,
        0.09177552163600922,
        0.13672320544719696,
        0.09166242182254791,
        0.1370360404253006,
        -0.01043873094022274,
        -0.12966154515743256,
        -0.06842715293169022,
        0.09828019887208939,
        -0.000935665681026876,
        -0.0717424601316452,
        -0.1106075718998909,
        -0.13507860898971558,
        -0.12182208895683289,
        -0.02927696332335472,
        0.0791555866599083,
        0.07803481817245483,
        -0.139203742146492,
        0.09003517776727676,
        -0.11294550448656082,
        -0.030514445155858994,
        -0.05852493271231651,
        -0.027801619842648506,
        -0.028339628130197525,
        -0.12952131032943726,
        -0.124626524746418,
        -0.02258586697280407,
        0.0018665995448827744,
        -0.06556893140077591,
        0.05437184497714043,
        -0.12991224229335785,
        -0.009740944020450115,
        0.1269332617521286,
        -0.058874137699604034,
        0.13033726811408997,
        0.05227239429950714,
        -0.13025900721549988,
        0.09132199734449387,
        -0.016655758023262024,
        -0.0644332766532898,
        0.11542000621557236,
        -0.11663849651813507,
        0.01548813283443451,
        -0.03021976910531521,
        0.10307327657938004,
        0.040291041135787964,
        0.06935497373342514,
        0.050974104553461075,
        -0.03470953181385994,
        -0.030354976654052734,
        -0.1189459040760994,
        0.07820846140384674,
        0.11460086703300476,
        0.09875934571027756,
        -0.10181258618831635,
        0.006437439471483231,
        -0.10174847394227982,
        -0.07945554703474045,
        -0.08410628885030746,
        0.04932664334774017,
        -0.08601265400648117,
        -0.0031490426044911146,
        0.00607201037928462,
        0.09304331988096237,
        -0.10910765826702118,
        -0.09908950328826904,
        -0.08381126821041107,
        0.10102668404579163,
        -0.051884304732084274,
        0.12174710631370544,
        0.05219355225563049,
        0.018276890739798546,
        -0.0010744523024186492,
        -0.02853287383913994,
        0.018109507858753204,
        -0.03295871615409851,
        -0.0010141783859580755,
        0.018416468054056168,
        -0.11290158331394196,
        -0.0756518542766571,
        0.11655153334140778,
        -0.11713667213916779,
        -0.010364331305027008,
        0.14278431236743927,
        0.05214007571339607,
        0.0040866355411708355,
        -0.12508437037467957,
        0.07150164246559143,
        -0.1028088703751564,
        -0.0409722775220871,
        -0.04842761158943176,
        -0.021374572068452835,
        0.0015788056189194322,
        0.11905071139335632,
        0.01801893301308155,
        0.1292821168899536,
        0.08829308301210403,
        -0.09125222265720367,
        0.06473598629236221,
        -0.1020316556096077,
        -0.06117388978600502,
        0.04245295375585556,
        0.047659121453762054,
        0.10828609019517899,
        -0.046464551240205765,
        0.00023106446315068752,
        0.074308380484581,
        -0.13958773016929626,
        0.10435326397418976,
        -0.11935596913099289,
        0.001989332726225257,
        -0.024539805948734283,
        -0.07601869106292725,
        0.019077245146036148,
        0.11935543268918991,
        -0.04219269007444382,
        -0.08569236099720001,
        -0.05338163673877716,
        -0.14305993914604187,
        0.065153107047081,
        -0.06932009756565094,
        -0.09632226824760437,
        -0.08315307646989822,
        0.08298775553703308,
        0.07643737643957138,
        0.11078223586082458,
        0.05235457047820091,
        -0.04820292815566063,
        -0.04033486545085907,
        0.042641639709472656,
        0.11865048855543137,
        0.03924425691366196,
        -0.06829264760017395,
        -0.06784982979297638,
        -0.13646669685840607,
        0.031183842569589615,
        -0.0809997171163559,
        -0.12868788838386536,
        0.12656621634960175,
        -0.09373442828655243,
        -0.016420064494013786,
        0.04135178029537201,
        0.004598353058099747,
        -0.09712211042642593,
        -0.11667118966579437,
        0.11504893749952316,
        0.0235037412494421,
        0.11974598467350006,
        -0.048387810587882996,
        0.04251541197299957,
        -0.033006567507982254,
        -0.006418856792151928,
        -0.08790795505046844,
        0.04881509765982628,
        0.045634619891643524,
        -0.002977477852255106,
        -0.032461829483509064,
        -0.08897397667169571,
        0.09981589019298553,
        -0.10744836181402206,
        0.059130117297172546,
        -0.04853401333093643,
        -0.06963825970888138,
        0.025929531082510948,
        -0.07497715950012207,
        0.03325607627630234,
        0.02834513410925865,
        -0.10716912150382996,
        0.024031994864344597,
        0.06147758290171623,
        0.057133279740810394,
        -0.018169023096561432,
        -0.11832614988088608,
        -0.02225022204220295,
        0.050129543989896774,
        -0.05266547203063965,
        0.054787810891866684,
        0.09612341970205307,
        -0.07536608725786209,
        0.0014234320260584354,
        0.05968343839049339,
        0.01131286658346653,
        0.01205673348158598,
        0.018022770062088966,
        -0.1134706437587738,
        0.011343236081302166,
        0.099949412047863,
        0.13006456196308136,
        0.08483453840017319,
        0.01934167370200157,
        0.06740768998861313,
        -0.07021728903055191,
        -0.11961086094379425,
        -0.12411891669034958,
        0.1439925581216812,
        0.0916239470243454,
        -0.09977099299430847,
        0.05647100880742073,
        0.10899905115365982,
        0.14428196847438812,
        0.12620802223682404,
        0.11182607710361481,
        -0.03309072181582451,
        -0.05065406486392021,
        0.11850818991661072,
        0.08088383078575134,
        -0.0868593156337738,
        0.1297619491815567,
        0.06973793357610703,
        0.0786835327744484,
        -0.09046737104654312,
        0.0414104200899601,
        -0.05059932917356491,
        0.11277910321950912,
        -0.025972185656428337,
        0.05619242042303085,
        0.02563750371336937,
        0.061411045491695404,
        -0.04904988035559654,
        0.07037486135959625,
        -0.10081559419631958,
        0.03259935975074768,
        -0.09765762090682983,
        -0.14239443838596344,
        -0.11591111123561859,
        0.11395018547773361,
        0.07809177041053772,
        0.13541977107524872,
        0.11563188582658768,
        -0.12890000641345978,
        -0.09850044548511505,
        -0.023322436958551407,
        -0.09373747557401657,
        0.10022749751806259,
        -0.10912032425403595,
        -0.07042250782251358,
        -0.1394432783126831,
        -0.08194701373577118,
        0.11871439218521118,
        0.11817783117294312,
        0.10332227498292923,
        0.11144696921110153,
        0.12834301590919495,
        -0.03695950657129288,
        0.06350883096456528,
        0.12859472632408142,
        0.04774957522749901,
        0.14429084956645966,
        0.07486254721879959,
        0.08972720056772232,
        -0.050517015159130096,
        0.06925713270902634,
        0.0165853314101696,
        -0.03447031229734421,
        -0.08136450499296188,
        -0.08099020272493362,
        -0.11106498539447784,
        0.09689818322658539,
        0.10261407494544983,
        -0.01642744615674019,
        -0.0835261270403862,
        0.11155929416418076,
        0.639488935470581,
        0.0743340253829956,
        -0.4721353054046631,
        0.9190478324890137,
        0.4089406728744507,
        -0.7591453790664673,
        0.9570828676223755,
        0.7593737840652466,
        -0.1288669854402542,
        0.19875164330005646,
        -0.20088514685630798,
        -0.055406879633665085,
        0.3002026081085205,
        0.014608519151806831,
        -0.25003936886787415,
        -0.11816918104887009,
        -0.09597035497426987,
        -0.06821062415838242,
        0.0338352769613266,
        0.32697662711143494,
        0.01892937161028385,
        -0.21829800307750702,
        0.01812112145125866,
        0.16952431201934814,
        0.17537669837474823,
        -0.32312604784965515,
        -0.06326570361852646,
        -0.2627412676811218,
        -0.1508561223745346,
        0.12738294899463654,
        -0.25106894969940186,
        0.13142529129981995,
        0.30008837580680847,
        0.023188984021544456,
        -0.23563897609710693,
        -0.1266728639602661,
        0.07720337063074112,
        -0.269520103931427,
        0.17564897239208221,
        -0.32098037004470825,
        -0.3398685157299042,
        -0.3435339033603668,
        -0.07172302156686783,
        0.23774093389511108,
        -0.3346308469772339,
        0.2938690185546875,
        -0.14142943918704987,
        0.10355016589164734,
        0.01612306572496891,
        -0.31880584359169006,
        0.29321208596229553,
        0.19036850333213806,
        0.3514305353164673,
        0.17861947417259216,
        -0.2333696186542511,
        0.2950699031352997,
        0.01900152675807476,
        0.16766083240509033,
        -0.2834894061088562,
        -0.10169132798910141,
        -0.3471461236476898,
        -0.13770639896392822,
        0.07627247273921967,
        -0.2775965929031372,
        0.11270016431808472,
        0.18978986144065857,
        0.04925327003002167,
        -0.23655667901039124,
        -0.2741169035434723,
        -0.1090770959854126,
        0.15519514679908752,
        0.3487437963485718,
        0.20330345630645752,
        -0.039813388139009476,
        0.12396163493394852,
        -0.34685811400413513,
        -0.30197039246559143,
        0.16497081518173218,
        -0.20025800168514252,
        0.17009299993515015,
        -0.10189252346754074,
        -0.07149197161197662,
        -0.11888926476240158,
        0.07532121241092682,
        -0.014707289636135101,
        0.11108235269784927,
        0.08932650089263916,
        0.0798681229352951,
        0.004641334526240826,
        -0.04462599754333496,
        -0.03138355538249016,
        0.01918254792690277,
        0.07154950499534607,
        -0.1011214405298233,
        0.12113932520151138,
        -0.01569383405148983,
        -0.12094702571630478,
        -0.0780949667096138,
        0.1277124285697937,
        0.1320006251335144,
        -0.13369694352149963,
        0.10180103778839111,
        0.0723361000418663,
        0.08543606847524643,
        0.12218596786260605,
        -0.0777907744050026,
        0.045578304678201675,
        0.059067726135253906,
        -0.04265079274773598,
        0.048303019255399704,
        -0.04152785241603851,
        0.08923833817243576,
        -0.04004712402820587,
        -0.05380842462182045,
        0.03633684292435646,
        0.05119561776518822,
        -0.07051923871040344,
        0.012759200297296047,
        0.08364877849817276,
        -0.014361114241182804,
        0.04392681643366814,
        -0.03481234237551689,
        0.050590261816978455,
        -0.10455729812383652,
        -0.08487464487552643,
        -0.07326438277959824,
        0.1326477974653244,
        -0.038838941603899,
        -0.0003940948809031397,
        -0.06993090361356735,
        0.14409075677394867,
        0.14097018539905548,
        -0.10885746031999588,
        -0.11701011657714844,
        -0.10940685868263245,
        -0.000696101225912571,
        -0.03679221123456955,
        -0.09447553008794785,
        -0.051769863814115524,
        0.027269821614027023,
        -0.07541503757238388,
        0.03198268264532089,
        -0.033098895102739334,
        -0.06994069367647171,
        0.01982988603413105,
        0.11868274956941605,
        -0.09758363664150238,
        0.00670222844928503,
        -0.05322703719139099,
        0.1416393667459488,
        -0.13694217801094055,
        -0.1383708268404007,
        0.14222806692123413,
        -0.09132092446088791,
        0.02767288126051426,
        -0.012457211501896381,
        -0.030405718833208084,
        -0.032237473875284195,
        0.09171794354915619,
        0.00689889770001173,
        -0.14052915573120117,
        -0.08521115034818649,
        -0.04920471832156181,
        0.07263302803039551,
        -0.09340570122003555,
        0.1360987275838852,
        -0.03214820846915245,
        -0.02591753751039505,
        0.11309685558080673,
        0.07254517078399658,
        0.12241562455892563,
        0.083491250872612,
        -0.04378536343574524,
        -0.09576398879289627,
        -0.010739155113697052,
        0.11945918947458267,
        -0.048442546278238297,
        -0.13385431468486786,
        0.059168074280023575,
        0.1405084878206253,
        -0.04109048470854759,
        -0.11951490491628647,
        -0.13092277944087982,
        0.03617090359330177,
        -0.010929198935627937,
        -0.07288862764835358,
        0.029175221920013428,
        0.05481346696615219,
        0.11479440331459045,
        0.11206112056970596,
        -0.021604983136057854,
        -0.1272721290588379,
        -0.13042676448822021,
        0.13476648926734924,
        0.06380517780780792,
        0.0629178062081337,
        -0.12488389760255814,
        0.13365885615348816,
        0.13673719763755798,
        0.13031665980815887,
        -0.1217610090970993,
        -0.05446193739771843,
        -0.09927015006542206,
        0.13668270409107208,
        -0.06201896443963051,
        -0.06589797139167786,
        0.07562031596899033,
        -0.06676945835351944,
        -0.07108944654464722,
        -0.012625421397387981,
        -0.013873658142983913,
        -0.11243585497140884,
        0.12032962590456009,
        -0.06367043405771255,
        0.05119867995381355,
        0.12554244697093964,
        0.07279180735349655,
        0.020435292273759842,
        0.12281063199043274,
        0.019402755424380302,
        -0.06677872687578201,
        0.13654325902462006,
        0.03416188806295395,
        -0.14082738757133484,
        -0.041091687977313995,
        -0.09831805527210236,
        0.1265483945608139,
        -0.023836752399802208,
        -0.13156728446483612,
        -0.009073542430996895,
        0.09064584970474243,
        0.03749896213412285,
        0.04564017802476883,
        0.013405093923211098,
        0.05381174385547638,
        -0.035168133676052094,
        -0.05741751194000244,
        -0.13491354882717133,
        -0.10873481631278992,
        0.06255626678466797,
        -0.08546420186758041,
        0.02070760168135166,
        0.04607131704688072,
        0.01021965965628624,
        -0.09358122199773788,
        0.13803410530090332,
        -0.08393221348524094,
        0.1187177300453186,
        -0.11482172459363937,
        -0.03472018241882324,
        0.07851513475179672,
        -0.058973535895347595,
        0.12124975025653839,
        -0.09932683408260345,
        -0.12121057510375977,
        -0.06508456915616989,
        0.023332227021455765,
        0.13289965689182281,
        -0.06890688091516495,
        0.051619186997413635,
        -0.03618644177913666,
        -0.03130137920379639,
        0.1061319038271904,
        -0.11185958236455917,
        0.015330573543906212,
        0.1357363760471344,
        -0.019833741709589958,
        0.11206918954849243,
        -0.044449735432863235,
        0.11618627607822418,
        -0.13962210714817047,
        -0.020802460610866547,
        -0.02535237744450569,
        0.0467776395380497,
        0.05662758648395538,
        0.1108248233795166,
        -0.021504273638129234,
        -0.005723719019442797,
        0.09884398430585861,
        -0.039053868502378464,
        0.12653116881847382,
        -0.09610170125961304,
        -0.015618746168911457,
        -0.00775250606238842,
        0.06440485268831253,
        0.09868014603853226,
        -0.022878048941493034,
        -0.11958087235689163,
        0.07151813805103302,
        0.04317594692111015,
        0.05798029899597168,
        -0.08903717249631882,
        0.0928950160741806,
        0.1367100477218628,
        0.012524368241429329,
        -0.13481827080249786,
        0.10132350772619247,
        -0.10701926797628403,
        0.03317917883396149,
        0.020974816754460335,
        -0.0675552561879158,
        0.05025769770145416,
        -0.1291002333164215,
        0.032874248921871185,
        -0.09150293469429016,
        -0.015607750974595547,
        0.01856597512960434,
        0.12296758592128754,
        -0.06886637955904007,
        0.09246785193681717,
        -0.018335754051804543,
        -0.06854991614818573,
        -0.12568910419940948,
        -0.13243237137794495,
        0.14096160233020782,
        -0.035997722297906876,
        0.0072094895876944065,
        0.03913169354200363,
        0.09811089187860489,
        0.12318837642669678,
        0.11706024408340454,
        -0.10693726688623428,
        -0.02312530390918255,
        -0.0854099690914154,
        -0.08246752619743347,
        0.03423788771033287,
        0.13548216223716736,
        -0.11562938988208771,
        0.08735373616218567,
        -0.07483422011137009,
        -0.028113244101405144,
        0.11457096040248871,
        -0.03264487162232399,
        0.013142765499651432,
        -0.10089665651321411,
        0.12286603450775146,
        -0.01865849457681179,
        -0.10556712001562119,
        0.04226353019475937,
        -0.10262651741504669,
        -0.11453291773796082,
        0.008792923763394356,
        0.11443711072206497,
        -0.040845222771167755,
        0.06793491542339325,
        0.12403233349323273,
        0.09573347121477127,
        -0.0757138654589653,
        -0.015822263434529305,
        -0.045420847833156586,
        -0.1160651445388794,
        5.9637306549120694e-05,
        0.10860464721918106,
        0.12160664796829224,
        0.013466795906424522,
        0.032782383263111115,
        -0.062486857175827026,
        0.1089521124958992,
        -0.06006008759140968,
        -0.10026448965072632,
        0.02222704514861107,
        0.08651382476091385,
        -0.1301335245370865,
        0.1304764747619629,
        0.05192270874977112,
        -0.10112474113702774,
        -0.031091392040252686,
        0.12522438168525696,
        -0.1107407882809639,
        -0.04218658059835434,
        0.047339875251054764,
        -0.1264519840478897,
        0.07912559807300568,
        0.07513457536697388,
        0.0895189568400383,
        -0.09202200174331665,
        0.14376035332679749,
        -0.08555775135755539,
        0.14409802854061127,
        -0.13851937651634216,
        -0.12860043346881866,
        0.08865159749984741,
        0.015085142105817795,
        0.00832673441618681,
        -0.07992813736200333,
        -0.060546062886714935,
        -0.04220249876379967,
        -0.14060722291469574,
        0.007501034531742334,
        0.025527384132146835,
        -0.0001221996935782954,
        0.04661097750067711,
        0.13695484399795532,
        0.038377054035663605,
        -0.052838001400232315,
        -0.05940164998173714,
        -0.09234797209501266,
        -0.10005751997232437,
        -0.023245541378855705,
        -0.025528347119688988,
        0.06421037018299103,
        -0.06169519200921059,
        0.11506643146276474,
        -0.10127881169319153,
        0.0004102344682905823,
        0.1297479122877121,
        0.14352712035179138,
        -0.08360930532217026,
        0.0257107000797987,
        0.01704954169690609,
        -0.06767290830612183,
        -0.049867887049913406,
        0.039094407111406326,
        -0.10036731511354446,
        0.02381507307291031,
        0.06245843321084976,
        -0.05687912553548813,
        0.11989272385835648,
        -0.009498919360339642,
        0.06548778712749481,
        0.14293840527534485,
        -0.04411942511796951,
        0.07843420654535294,
        -0.04128476232290268,
        -0.02108381874859333,
        -0.02446105144917965,
        -0.0008967104367911816,
        -0.05452616885304451,
        0.03383083641529083,
        0.005438695196062326,
        0.0914941057562828,
        -0.02921469323337078,
        0.014474194496870041,
        -0.053692176938056946,
        -0.12087602913379669,
        0.05840868502855301,
        0.01846913807094097,
        -0.05780484527349472,
        -0.0488012470304966,
        0.037747353315353394,
        -0.026098668575286865,
        0.0943211168050766,
        0.008175731636583805,
        0.054521594196558,
        0.06288733333349228,
        -0.03541557863354683,
        0.06244979426264763,
        0.10651148855686188,
        0.006642178166657686,
        0.02824583649635315,
        0.00524459034204483,
        0.09993463009595871,
        -0.06093864515423775,
        -0.07672549784183502,
        0.06289561092853546,
        -0.12561902403831482,
        0.002314085839316249,
        -0.06637956202030182,
        0.0952676385641098,
        -0.1343839168548584,
        0.08751656115055084,
        0.14280134439468384,
        0.029205281287431717,
        -0.009616730734705925,
        0.14207865297794342,
        -0.061682991683483124,
        -0.011566282249987125,
        -0.06320613622665405,
        -0.01992453821003437,
        0.031370170414447784,
        0.019277922809123993,
        -0.027261752635240555,
        -0.9998406171798706,
        0.05120408535003662,
        -0.02962195873260498,
        0.15043675899505615,
        0.7662502527236938,
        0.9720094203948975,
        -0.5932824611663818,
        -0.062354445457458496,
        -0.14165951311588287,
        -0.3258509337902069,
        -0.2572663426399231,
        0.3318314552307129,
        0.20614323019981384,
        0.1899115890264511,
        0.19648489356040955,
        -0.28089073300361633,
        0.03712989762425423,
        0.3290573060512543,
        -0.19731315970420837,
        0.31451907753944397,
        0.09292743355035782,
        0.24874019622802734,
        -0.15145790576934814,
        0.162994384765625,
        -0.31342074275016785,
        -0.022449055686593056,
        0.117928147315979,
        0.10602869838476181,
        0.2958563268184662,
        0.3474217355251312,
        0.32164767384529114,
        0.2373729795217514,
        0.24856996536254883,
        -0.04561890661716461,
        -0.27437400817871094,
        -0.1312486082315445,
        -0.0396915003657341,
        -0.19105549156665802,
        0.18072618544101715,
        0.12410686910152435,
        0.057046517729759216,
        0.08540460467338562,
        0.310579776763916,
        0.1287752240896225,
        -0.31004488468170166,
        -0.2566376030445099,
        0.1558285355567932,
        0.04818198084831238,
        0.1724250316619873,
        -0.35310080647468567,
        -0.3262835741043091,
        0.2168082743883133,
        0.22614890336990356,
        -0.3198636472225189,
        0.13420365750789642,
        -0.27607011795043945,
        0.26774871349334717,
        0.11094167083501816,
        0.34958896040916443,
        -0.3486008048057556,
        -0.3403574228286743,
        0.23903816938400269,
        0.3138928711414337,
        0.21661506593227386,
        0.23505283892154694,
        -0.2977878749370575,
        0.25590676069259644,
        -0.3338063955307007,
        0.07898441702127457,
        -0.23158976435661316,
        -0.1404297947883606,
        0.06260328739881516,
        -0.13901013135910034,
        -0.05594024807214737,
        -0.3351065218448639,
        -0.33335602283477783,
        0.13695353269577026,
        -0.14965152740478516,
        -0.21509820222854614,
        -0.13950589299201965,
        -0.11800584942102432,
        -0.11538347601890564,
        0.08636760711669922,
        0.0733584314584732,
        0.01922626979649067,
        -0.0788457840681076,
        0.04802124574780464,
        0.006484395824372768,
        -0.10315413028001785,
        0.031059972941875458,
        0.13142569363117218,
        -0.14197134971618652,
        -0.14352814853191376,
        0.01849324442446232,
        0.10868940502405167,
        -0.08782792836427689,
        0.03177405521273613,
        0.10146718472242355,
        0.04450163245201111,
        0.031236201524734497,
        0.14400933682918549,
        0.09403198212385178,
        -0.08117935061454773,
        0.01247603539377451,
        0.07373807579278946,
        0.127292662858963,
        -0.14360618591308594,
        0.07815956324338913,
        -0.04190579056739807,
        -0.14133840799331665,
        0.03203918784856796,
        -0.07857934385538101,
        0.020454391837120056,
        -0.09371072053909302,
        -0.10861820727586746,
        -0.012247190810739994,
        -0.04848669841885567,
        0.08441795408725739,
        0.0124445129185915,
        0.11266392469406128,
        0.027049288153648376,
        -0.04641338065266609,
        0.09776467829942703,
        0.007887335494160652,
        0.02709096111357212,
        -0.04642222449183464,
        0.0005179980071261525,
        -0.027752237394452095,
        -0.012271193787455559,
        -0.11256588250398636,
        -0.0008876598440110683,
        -0.11980656534433365,
        -0.031051456928253174,
        0.08365029096603394,
        -0.10036516934633255,
        -0.0972909927368164,
        -0.035243842750787735,
        -0.03956783935427666,
        0.024434536695480347,
        0.023962290957570076,
        0.07319308072328568,
        -0.0994313433766365,
        -0.010186072438955307,
        0.0807267352938652,
        0.1248478814959526,
        -0.01052877213805914,
        -0.08351662755012512,
        0.04149165004491806,
        0.08219696581363678,
        -0.09017487615346909,
        -0.08375813812017441,
        0.06379695236682892,
        -0.010113152675330639,
        -0.1363266408443451,
        -0.0832228809595108,
        0.058533623814582825,
        -0.04895579442381859,
        0.09962598234415054,
        0.11410459876060486,
        0.02099677175283432,
        -0.01141345500946045,
        -0.04581666365265846,
        -0.0072985501028597355,
        0.026272453367710114,
        -0.11025240272283554,
        -0.03449605405330658,
        -0.12006012350320816,
        0.08858788013458252,
        -0.09191939979791641,
        0.131858691573143,
        -0.03720745071768761,
        -0.08268742263317108,
        0.06934743374586105,
        0.021517712622880936,
        0.09994741529226303,
        0.06025656685233116,
        -0.1390460729598999,
        0.0912921205163002,
        -0.027180761098861694,
        -0.06379302591085434,
        0.09166213124990463,
        0.10526975989341736,
        -0.12686271965503693,
        -0.013051485642790794,
        0.11853095889091492,
        0.055900029838085175,
        0.12159997224807739,
        -0.04946429654955864,
        -0.07962272316217422,
        0.12411726266145706,
        0.06016320362687111,
        0.13856153190135956,
        -0.06028930842876434,
        -0.0926743671298027,
        -0.016918223351240158,
        -0.13590535521507263,
        0.05657673999667168,
        0.10646171122789383,
        0.03464922308921814,
        -0.014261540956795216,
        0.0715634822845459,
        -0.09161846339702606,
        0.14119723439216614,
        -0.14352114498615265,
        -0.13826748728752136,
        -0.03410720452666283,
        0.11790134012699127,
        0.014451912604272366,
        0.05543222278356552,
        -0.10580042004585266,
        0.05263785645365715,
        -0.016128776594996452,
        0.05785389989614487,
        0.10193733125925064,
        0.06274068355560303,
        -0.012277955189347267,
        -0.008891069330275059,
        -0.09052566438913345,
        -0.05220719799399376,
        0.09379604458808899,
        -0.05787886679172516,
        0.08963936567306519,
        -0.05723445490002632,
        -0.03361605107784271,
        0.0030718203634023666,
        -0.13245360553264618,
        -0.0014412063173949718,
        -0.014548612758517265,
        -0.012966761365532875,
        -0.028853686526417732,
        0.11379245668649673,
        0.10651926696300507,
        -0.09782583266496658,
        0.06704866141080856,
        -0.113215871155262,
        -0.12287764996290207,
        0.0441213883459568,
        0.0021212538704276085,
        -0.06733439117670059,
        -0.13921412825584412,
        -0.055878281593322754,
        0.048208676278591156,
        -0.13359905779361725,
        -0.14021895825862885,
        0.018312472850084305,
        -0.1039813831448555,
        -0.1264512985944748,
        -0.055611275136470795,
        -0.023238470777869225,
        -0.13116030395030975,
        -0.09637819230556488,
        0.009463903494179249,
        -0.1361062377691269,
        -0.0202872846275568,
        -0.09319915622472763,
        -0.10006018728017807,
        0.056729137897491455,
        -0.111095130443573,
        -0.10938394069671631,
        0.08231304585933685,
        0.0269862599670887,
        0.13145007193088531,
        -0.03858077898621559,
        -0.06971722096204758,
        -0.013357930816709995,
        0.000730255909729749,
        0.11007822304964066,
        -0.14377175271511078,
        -0.01027693971991539,
        0.06384803354740143,
        -0.0794842466711998,
        -0.07334380596876144,
        0.06975369155406952,
        -0.13830211758613586,
        0.034201618283987045,
        -0.11174419522285461,
        0.07174469530582428,
        -0.12341445684432983,
        0.08873941749334335,
        -0.13663464784622192,
        -0.12132535874843597,
        0.002127086976543069,
        0.11373633146286011,
        -0.12361005693674088,
        -0.06438317149877548,
        0.12676917016506195,
        -0.02420503832399845,
        0.05979682877659798,
        -0.13885247707366943,
        -0.04539140686392784,
        -0.07329925894737244,
        0.12168540060520172,
        0.059905849397182465,
        -0.10531960427761078,
        0.0232711099088192,
        -0.0016589357983320951,
        -0.059303950518369675,
        -0.08242780715227127,
        -0.04789677634835243,
        0.11377069354057312,
        -0.10346871614456177,
        -0.10281790047883987,
        -0.044530898332595825,
        0.002510943915694952,
        0.0392904058098793,
        0.004331293050199747,
        -0.034745752811431885,
        -0.08751910924911499,
        -0.025898868218064308,
        -0.058103565126657486,
        0.11661447584629059,
        -0.1404995620250702,
        -0.09206701070070267,
        -0.1174316257238388,
        -0.02637866884469986,
        0.11247842013835907,
        0.12651753425598145,
        -0.12565383315086365,
        -0.006253692787140608,
        0.08472126722335815,
        0.06362362951040268,
        0.11822745203971863,
        -0.004003666341304779,
        -0.09697936475276947,
        0.09548369795084,
        -0.049495454877614975,
        0.07473599165678024,
        -0.035570040345191956,
        0.0613570511341095,
        0.12982095777988434,
        0.13421307504177094,
        -0.13135656714439392,
        -0.09547645598649979,
        -0.05967879295349121,
        -0.09204421192407608,
        0.1384918987751007,
        -0.012747724540531635,
        -0.09574496001005173,
        -0.06422869116067886,
        -0.07972695678472519,
        0.05888819321990013,
        -0.12589861452579498,
        -0.1345807909965515,
        -0.1422823667526245,
        0.062140800058841705,
        0.07136837393045425,
        -0.08964504301548004,
        0.035792622715234756,
        0.1065477803349495,
        0.020972441881895065,
        -0.030539171770215034,
        0.010663997381925583,
        -0.015476983040571213,
        0.07267384231090546,
        -0.09800684452056885,
        0.07319393754005432,
        0.08135204762220383,
        -0.08745047450065613,
        0.11786080151796341,
        0.14176616072654724,
        -0.05690200999379158,
        -0.04042814299464226,
        0.07193142175674438,
        -0.11307699978351593,
        0.05707944184541702,
        0.03367463871836662,
        0.09098026156425476,
        -0.12537258863449097,
        -0.11991345137357712,
        0.06482619792222977,
        0.05199194699525833,
        -0.13434453308582306,
        -0.08049121499061584,
        -0.1320657730102539,
        -0.10340674221515656,
        -0.06512505561113358,
        0.11944489181041718,
        -0.028730522841215134,
        0.08290044963359833,
        0.13707463443279266,
        0.06577927619218826,
        -0.12921248376369476,
        0.07263393700122833,
        0.05505533516407013,
        0.11187107115983963,
        -0.1423795074224472,
        0.08876991271972656,
        0.11814627051353455,
        -0.13428658246994019,
        0.015101505443453789,
        0.12321709841489792,
        -0.10497789084911346,
        0.04735993593931198,
        0.06377950310707092,
        0.0378294438123703,
        0.1435113549232483,
        0.11818065494298935,
        0.12383509427309036,
        -0.017991213127970695,
        0.12105773389339447,
        -0.13451001048088074,
        -0.07788878679275513,
        -0.030871082097291946,
        -0.042876455932855606,
        0.13332384824752808,
        0.06807901710271835,
        0.09292640537023544,
        0.09817976504564285,
        -0.10782067477703094,
        -0.016717322170734406,
        0.021076833829283714,
        0.037541117519140244,
        0.07422308623790741,
        -0.05743289738893509,
        -0.04352274164557457,
        0.12077320367097855,
        -0.0387379415333271,
        -0.1002628430724144,
        0.09786660969257355,
        0.09773897379636765,
        -0.04525948688387871,
        -0.028855973854660988,
        -0.10650379955768585,
        -0.12053539603948593,
        0.05427807196974754,
        -0.06165993586182594,
        0.11490648239850998,
        -0.115572988986969,
        -0.019951071590185165,
        0.0031165052205324173,
        0.07418187707662582,
        0.11681682616472244,
        0.09774604439735413,
        0.06353682279586792,
        -0.06625004857778549,
        -0.10307833552360535,
        -0.12912623584270477,
        0.007159815169870853,
        0.13999015092849731,
        -0.027415834367275238,
        -0.006076398305594921,
        -0.10488924384117126,
        0.04431303218007088,
        0.09150761365890503,
        -0.1423047035932541,
        -0.1016312837600708,
        0.10691194981336594,
        0.03417401760816574,
        -0.008998884819447994,
        0.025801531970500946,
        -0.02194535918533802,
        -0.10088689625263214,
        -0.13487333059310913,
        0.094931960105896,
        -0.017167028039693832,
        -0.053605131804943085,
        -0.03725571557879448,
        -0.07872503250837326,
        -0.04275038465857506,
        -0.12390144914388657,
        0.10801409184932709,
        0.05893915891647339,
        -0.07279253005981445,
        -0.049264322966337204,
        0.06475523859262466,
        -0.053448982536792755,
        0.038060903549194336,
        0.0397421233355999,
        -0.09085951745510101,
        0.036156777292490005,
        0.008831174112856388,
        0.12606209516525269,
        -0.3618199825286865,
        -0.2570685148239136,
        0.8616006374359131,
        -0.816602349281311,
        0.07224845886230469,
        0.9635022878646851,
        -0.4483679533004761,
        0.9586821794509888,
        0.31372228264808655,
        0.3289247453212738,
        -0.03373716026544571,
        0.31983616948127747,
        -0.1540500521659851,
        -0.12102315574884415,
        0.13372541964054108,
        0.0746871680021286,
        0.1949053555727005,
        0.3359886109828949,
        -0.22132055461406708,
        0.1876402050256729,
        0.11828643828630447,
        0.18652348220348358,
        0.16764524579048157,
        -0.13225369155406952,
        -0.2794330418109894,
        0.28297874331474304,
        -0.20160873234272003,
        0.22603628039360046,
        -0.3368103504180908,
        -0.061165571212768555,
        0.0037472762633115053,
        0.06117307394742966,
        0.02857842855155468,
        0.11140689253807068,
        -0.03936625272035599,
        0.08658678084611893,
        0.349870890378952,
        -0.22876743972301483,
        -0.01930287666618824,
        -0.13495947420597076,
        0.3102182149887085,
        0.30265578627586365,
        -0.009641133248806,
        -0.12255313247442245,
        -0.218448668718338,
        0.25298142433166504,
        -0.0243469700217247,
        0.3329799473285675,
        0.2016180455684662,
        0.3094668984413147,
        0.27963370084762573,
        -0.22975392639636993,
        0.10348585247993469,
        -0.14660406112670898,
        0.17739655077457428,
        -0.03178790956735611,
        0.030607083812355995,
        -0.2445206344127655,
        -0.3159797191619873,
        0.13313864171504974,
        0.08216064423322678,
        0.03071063756942749,
        0.24013154208660126,
        -0.1476348489522934,
        0.12550467252731323,
        -0.19472362101078033,
        0.0732562392950058,
        -0.08071572333574295,
        0.24760286509990692,
        0.3091762661933899,
        0.3070695102214813,
        0.015904324129223824,
        0.20848798751831055,
        -0.3532487452030182,
        -0.2073923796415329,
        0.06318819522857666,
        0.001971755875274539,
        -0.2775651812553406,
        -0.15648682415485382,
        -0.16512857377529144,
        -0.14300419390201569,
        0.01376558467745781,
        0.09839405864477158,
        0.058581333607435226,
        -0.0685795322060585,
        -0.13254016637802124,
        -0.11644823104143143,
        0.0026773468125611544,
        0.09929172694683075,
        -0.058452751487493515,
        -0.07854056358337402,
        -0.0769978016614914,
        -0.012495117262005806,
        -0.13707084953784943,
        -0.12736989557743073,
        0.142084538936615,
        -0.06883690506219864,
        -0.026033250615000725,
        -0.03861790895462036,
        -0.12680144608020782,
        -0.02544572204351425,
        0.04418414086103439,
        -0.05860936641693115,
        -0.006151641719043255,
        -0.0006904403562657535,
        -0.14368875324726105,
        0.10489247739315033,
        0.11659195274114609,
        0.09841014444828033,
        -0.04740021750330925,
        0.07542550563812256,
        -0.1352331042289734,
        -0.03570719435811043,
        -0.029355991631746292,
        -0.05097275972366333,
        0.06062178686261177,
        -0.0657685399055481,
        -0.016729280352592468,
        -0.041677962988615036,
        -0.13554495573043823,
        -0.02383599616587162,
        -0.12232265621423721,
        0.08416382968425751,
        0.07714308053255081,
        0.13521428406238556,
        -0.04846895858645439,
        0.007339879870414734,
        0.028274381533265114,
        0.14408043026924133,
        0.13230174779891968,
        -0.07470039278268814,
        -0.12281721830368042,
        -0.13008975982666016,
        -0.0695071592926979,
        0.12135708332061768,
        0.0484757199883461,
        0.1392645537853241,
        0.10698600858449936,
        0.0020925537683069706,
        -0.08945687115192413,
        0.14094571769237518,
        0.1157834455370903,
        0.062489937990903854,
        -0.07884633541107178,
        0.11370614916086197,
        0.01313701830804348,
        0.09544089436531067,
        0.06024169921875,
        0.07664445042610168,
        -0.12665274739265442,
        -0.08003246039152145,
        0.08656955510377884,
        -0.03007069230079651,
        -0.12557075917720795,
        0.1312604695558548,
        -0.0031213746406137943,
        0.11643479019403458,
        -0.11281666904687881,
        0.04969453439116478,
        -0.054367441684007645,
        -0.060739461332559586,
        -0.03010445274412632,
        -0.05342596024274826,
        0.07909123599529266,
        -0.027424007654190063,
        0.10943929851055145,
        0.03293539956212044,
        -0.022302357479929924,
        -0.08336929231882095,
        -0.13216601312160492,
        -0.04210648685693741,
        -0.133661150932312,
        -0.026741517707705498,
        0.0023590978235006332,
        -0.009301665239036083,
        -0.0709010511636734,
        0.10017945617437363,
        0.08128800988197327,
        -0.03556147217750549,
        -0.05702861398458481,
        0.09074360132217407,
        0.1255771964788437,
        -0.13216103613376617,
        -0.031185459345579147,
        -0.013394839130342007,
        -0.052258990705013275,
        0.12322229146957397,
        -0.02132030390202999,
        0.12237638980150223,
        0.0007135485066100955,
        -0.015656478703022003,
        -0.08419234305620193,
        -0.047993168234825134,
        0.046509839594364166,
        0.0638459175825119,
        -0.005135553423315287,
        0.13753101229667664,
        -0.09990076720714569,
        0.0553409606218338,
        0.13000133633613586,
        -0.025097757577896118,
        0.11459090560674667,
        0.0023793152067810297,
        -0.10808644443750381,
        -0.07918595522642136,
        0.053724680095911026,
        -0.06246192380785942,
        0.03471478074789047,
        0.14206501841545105,
        0.04902864620089531,
        -0.013508521020412445,
        0.03607788681983948,
        -0.0831591859459877,
        -0.12128008902072906,
        -0.1084984838962555,
        -0.12111401557922363,
        0.029620883986353874,
        0.02811453491449356,
        -0.061338845640420914,
        -0.14118388295173645,
        0.07818834483623505,
        -0.08189847320318222,
        -0.02409682795405388,
        -0.12102443724870682,
        -0.08142922073602676,
        0.060211844742298126,
        -0.134483203291893,
        -0.08230700343847275,
        0.10821423679590225,
        -0.07402333617210388,
        -0.060066934674978256,
        -0.04052620008587837,
        0.06169840693473816,
        -0.09468105435371399,
        0.014472061768174171,
        0.0589478500187397,
        -0.010477927513420582,
        0.02609892748296261,
        -0.11010755598545074,
        0.06525493413209915,
        0.0539432018995285,
        -0.018104568123817444,
        -0.1193484514951706,
        0.057731494307518005,
        0.09418625384569168,
        -0.02524578385055065,
        0.06803173571825027,
        0.05350003391504288,
        -0.05773034319281578,
        -0.010019962675869465,
        0.1436791568994522,
        0.0006814242224209011,
        -0.1149090826511383,
        -0.010526294820010662,
        0.0718068778514862,
        -0.04711519554257393,
        -0.0755872055888176,
        0.11890214681625366,
        0.07635626196861267,
        -0.024521928280591965,
        0.007374051492661238,
        -0.015265533700585365,
        0.03351021185517311,
        0.005129686091095209,
        -0.08734370768070221,
        0.026742033660411835,
        0.0037751139607280493,
        0.009331931360065937,
        -0.05500530079007149,
        0.036982547491788864,
        -0.11671800911426544,
        0.043145839124917984,
        0.0782155692577362,
        -0.01588480733335018,
        -0.11212144047021866,
        -0.0005246913060545921,
        0.00020489355665631592,
        -0.1247372105717659,
        -0.10208926349878311,
        0.13350339233875275,
        0.10793833434581757,
        0.07999231666326523,
        0.0999910980463028,
        0.05556460842490196,
        0.08123155683279037,
        0.09559790045022964,
        -0.03371835872530937,
        -0.018348487094044685,
        0.10291938483715057,
        -5.19804707437288e-05,
        -0.09391850233078003,
        -0.11191917955875397,
        0.08072444796562195,
        0.11955761164426804,
        0.11209432780742645,
        0.024020517244935036,
        0.09963341802358627,
        -0.1325211226940155,
        -0.1039898619055748,
        -0.1388860046863556,
        0.11629079282283783,
        -0.0013060501078143716,
        -0.06646235287189484,
        0.048839978873729706,
        -0.05403029918670654,
        -0.09257005900144577,
        0.055670756846666336,
        0.026428034529089928,
        -0.1033627912402153,
        -0.09506966173648834,
        0.06767550855875015,
        0.10975093394517899,
        0.011750098317861557,
        -0.07249859720468521,
        0.06969691067934036,
        0.025173258036375046,
        -0.1263645589351654,
        -0.09353722631931305,
        0.031592149287462234,
        0.08931238949298859,
        -0.046370431780815125,
        0.06979204714298248,
        -0.0893900990486145,
        0.13812147080898285,
        0.10284687578678131,
        0.02703547105193138,
        0.06421470642089844,
        0.05025210604071617,
        -0.08517318964004517,
        -0.0012586121447384357,
        0.038489121943712234,
        -0.03257903829216957,
        0.13841184973716736,
        -0.05566182732582092,
        -0.12890349328517914,
        -0.0687156692147255,
        -0.13395750522613525,
        0.11894110590219498,
        -0.06479447335004807,
        -0.10155204683542252,
        -0.015602709725499153,
        -0.09725587069988251,
        -0.07539810985326767,
        0.07358475029468536,
        -0.10836800932884216,
        0.0680684819817543,
        0.10525651276111603,
        -0.00032375523005612195,
        0.06409116089344025,
        -0.08085192739963531,
        0.11255685240030289,
        0.14021550118923187,
        0.03429989889264107,
        0.13153134286403656,
        -0.14335113763809204,
        -0.01584838144481182,
        0.02867886982858181,
        -0.1254563182592392,
        0.07023923844099045,
        -0.0550091378390789,
        -0.052204377949237823,
        -0.11451949924230576,
        0.059007760137319565,
        -0.10502391308546066,
        -0.030629247426986694,
        0.06411927938461304,
        0.10873615741729736,
        0.032638367265462875,
        -0.05384407564997673,
        -0.06278184056282043,
        0.08101418614387512,
        0.026780059561133385,
        0.12150394171476364,
        0.054355502128601074,
        0.11627576500177383,
        -0.11630845814943314,
        0.11603701114654541,
        -0.06631650030612946,
        -0.0386369414627552,
        0.0008639150764793158,
        -0.027067886665463448,
        0.028550801798701286,
        0.1286187469959259,
        -0.08623955398797989,
        0.044598452746868134,
        -0.11600471287965775,
        0.02266322635114193,
        0.11890693008899689,
        0.09732440114021301,
        0.12360528856515884,
        0.07813342660665512,
        -0.01194175984710455,
        0.037686046212911606,
        -0.06031212583184242,
        0.12251701951026917,
        0.07227050513029099,
        -0.10564354807138443,
        0.12480240315198898,
        -0.00214185006916523,
        -0.006416121032088995,
        -0.039503056555986404,
        -0.0380820706486702,
        0.007224149536341429,
        -0.07046409696340561,
        -0.1342637985944748,
        -0.07434914261102676,
        -0.02872277982532978,
        0.1089957132935524,
        0.10618269443511963,
        -0.08648018538951874,
        -0.005542174447327852,
        -0.0416581928730011,
        -0.07721605151891708,
        -0.025381386280059814,
        -0.05008162558078766,
        0.0806775614619255,
        -0.07158248871564865,
        0.02220674231648445,
        -0.08145175874233246,
        -0.04504848271608353,
        0.11362596601247787,
        -0.07086052745580673,
        -0.008679104037582874,
        0.13784942030906677,
        0.04940202459692955,
        -0.07346765697002411,
        -0.0866607204079628,
        -0.050615452229976654,
        -0.0451991930603981,
        0.06284268200397491,
        -0.032089825719594955,
        0.12173308432102203,
        -0.07919536530971527,
        -0.04513489454984665,
        0.05255046486854553,
        0.11527586728334427,
        0.13807231187820435,
        0.02310236729681492,
        0.006083986256271601,
        -0.06466834992170334,
        0.08155343681573868,
        -0.0836651399731636,
        -0.03793851658701897,
        -0.12063686549663544,
        -0.13875792920589447,
        0.08067774772644043,
        0.00980588048696518,
        0.11506225168704987,
        0.11485385149717331,
        0.07574160397052765,
        0.05776306986808777,
        -0.03745809569954872,
        0.07665937393903732,
        0.06940727680921555,
        0.04996649920940399,
        -0.004166576080024242,
        0.021559661254286766,
        0.0006404041778296232,
        -0.10474945604801178,
        0.033506326377391815,
        -0.10610909014940262,
        0.07003278285264969,
        -0.08599770069122314,
        -0.04714793711900711,
        -0.06845255196094513,
        0.11392725259065628,
        -0.10164520144462585,
        0.07370073348283768,
        0.07238966226577759,
        0.10205739736557007,
        0.03616436570882797,
        0.07868544012308121,
        0.7905000448226929,
        0.1969761848449707,
        0.3400176763534546,
        -0.7819340229034424,
        -0.2682298421859741,
        0.09067189693450928,
        0.12115836143493652,
        -0.35330116748809814,
        -0.35049083828926086,
        -0.09194520115852356,
        0.13535472750663757,
        0.3044343888759613,
        -0.3192690312862396,
        0.16879859566688538,
        -0.3354775607585907,
        -0.3381037414073944,
        -0.22141088545322418,
        -0.046698495745658875,
        0.09874530136585236,
        -0.26888129115104675,
        0.272391676902771,
        0.31971976161003113,
        0.02175283059477806,
        0.2877867817878723,
        -0.16005906462669373,
        -0.13986384868621826,
        -0.045624300837516785,
        0.038631126284599304,
        -0.24663399159908295,
        -0.28310346603393555,
        0.1396653801202774,
        0.101938895881176,
        0.3458702564239502,
        -0.14414829015731812,
        0.12485396862030029,
        -0.14267238974571228,
        0.17453144490718842,
        -0.019585134461522102,
        0.2620919346809387,
        0.19642318785190582,
        0.2942793369293213,
        0.18168950080871582,
        0.013282958418130875,
        0.30468255281448364,
        -0.20767083764076233,
        0.33346664905548096,
        0.3454877734184265,
        0.33773815631866455,
        -0.1651521772146225,
        -0.18733316659927368,
        0.022368723526597023,
        0.11009573936462402,
        0.1773519515991211,
        0.14379118382930756,
        0.3010469675064087,
        -0.08857931196689606,
        -0.1159914955496788,
        0.11851116269826889,
        0.09852373600006104,
        -0.20623746514320374,
        0.03419731929898262,
        -0.2684353291988373,
        -0.10372166335582733,
        -0.13876019418239594,
        0.30991899967193604,
        -0.31825944781303406,
        -0.2087467610836029,
        -0.3459979295730591,
        0.08916806429624557,
        -0.27212613821029663,
        0.11438890546560287,
        -0.24558208882808685,
        -0.22647954523563385,
        -0.18062178790569305,
        0.05305740237236023,
        0.3248734176158905,
        0.33117780089378357,
        -0.026710860431194305,
        -0.34630441665649414,
        -0.11680522561073303,
        -0.05500863865017891,
        -0.03069998137652874,
        0.055149730294942856,
        0.0726357102394104,
        0.06399562954902649,
        0.04123266041278839,
        -0.05843188241124153,
        -0.0015311612514778972,
        0.01836947724223137,
        -0.07372623682022095,
        -0.012911907397210598,
        -0.01801750436425209,
        -0.13637197017669678,
        0.09784969687461853,
        -0.014592884108424187,
        -0.1247740164399147,
        0.11419606953859329,
        -0.07766429334878922,
        0.051101844757795334,
        0.14314137399196625,
        0.006681752856820822,
        0.041526440531015396,
        0.05734946206212044,
        0.10908903926610947,
        -0.044286053627729416,
        -0.08122149109840393,
        -0.01129540242254734,
        0.11287935078144073,
        0.012410410679876804,
        0.10028737783432007,
        -0.0010731273796409369,
        0.04428567364811897,
        0.005018945783376694,
        0.003918184898793697,
        -0.13735444843769073,
        -0.1261848360300064,
        0.011998799629509449,
        0.0714375302195549,
        0.09695912897586823,
        0.00626269169151783,
        0.06084141135215759,
        0.06036732345819473,
        -0.12459973245859146,
        -0.12686310708522797,
        -0.11191155761480331,
        0.0024815555661916733,
        -0.09126701951026917,
        -0.04618990421295166,
        -0.021594934165477753,
        0.056314997375011444,
        0.03346595913171768,
        0.13389846682548523,
        0.1301911473274231,
        -0.09208112210035324,
        -0.0004547129792626947,
        0.023835118860006332,
        0.12600646913051605,
        -0.04473324492573738,
        -0.056724973022937775,
        -0.09143152832984924,
        0.10635673999786377,
        -0.04089193791151047,
        -0.054058052599430084,
        0.09762553125619888,
        0.1328141838312149,
        -0.006082575302571058,
        -0.10174442827701569,
        0.117604099214077,
        -0.049364134669303894,
        -0.06651433557271957,
        -0.10147275775671005,
        -0.06941699981689453,
        -0.11304014176130295,
        -0.08331369608640671,
        -0.1314854621887207,
        -0.02909163199365139,
        0.05803455039858818,
        -0.10957032442092896,
        -0.00020157272228971124,
        -0.053226176649332047,
        0.06981582939624786,
        0.12501385807991028,
        -0.01913381926715374,
        -0.07264505326747894,
        -0.11090381443500519,
        -0.08480146527290344,
        0.04167358949780464,
        0.03311729058623314,
        0.07773003727197647,
        -0.021447045728564262,
        0.074165478348732,
        -0.12859363853931427,
        0.038800694048404694,
        0.14012198150157928,
        -0.14285065233707428,
        -0.07492959499359131,
        0.09240046888589859,
        -0.022566990926861763,
        -0.07693818211555481,
        0.08805524557828903,
        0.009675456210970879,
        0.0056532761082053185,
        -0.04384025186300278,
        0.1087496280670166,
        0.08006363362073898,
        0.0258568674325943,
        0.022027570754289627,
        0.07463596761226654,
        0.08992373198270798,
        -0.059207476675510406,
        -0.015813831239938736,
        0.06336744129657745,
        -0.0699428990483284,
        0.13496282696723938,
        -0.09887111932039261,
        0.0666041374206543,
        -0.10367947816848755,
        0.04634195566177368,
        0.10081358253955841,
        0.017399830743670464,
        -0.014466658234596252,
        0.0917862206697464,
        -0.10364029556512833,
        -0.09737960249185562,
        -0.12301839888095856,
        -0.088846854865551,
        0.003746172646060586,
        -0.06544926017522812,
        0.03215624392032623,
        0.0048706610687077045,
        0.12012598663568497,
        -0.06258594989776611,
        -0.03948593884706497,
        0.09546399861574173,
        -0.036496397107839584,
        0.13818801939487457,
        -0.0573280043900013,
        -0.0015807844465598464,
        -0.034197624772787094,
        0.06734022498130798,
        0.055305466055870056,
        -0.0768638327717781,
        0.09511002898216248,
        -0.009171533398330212,
        -0.036499734967947006,
        -0.0029115257784724236,
        0.10045111179351807,
        0.14158666133880615,
        0.0702333077788353,
        0.025256555527448654,
        0.09419964253902435,
        -0.06035732477903366,
        -0.07543125003576279,
        -0.041682641953229904,
        -0.09341873228549957,
        0.062060654163360596,
        0.01371059287339449,
        -0.04938283935189247,
        -0.014653485268354416,
        -0.0028619025833904743,
        0.1237594410777092,
        0.12884528934955597,
        -0.11111798137426376,
        0.052899256348609924,
        0.05573560670018196,
        0.055190008133649826,
        -0.019677765667438507,
        0.03609710559248924,
        0.03632060065865517,
        0.1404835730791092,
        -0.1383371353149414,
        -0.054772600531578064,
        -0.09711059927940369,
        -0.0700138583779335,
        0.028338974341750145,
        0.08802912384271622,
        -0.10915008932352066,
        0.0938788652420044,
        0.12056547403335571,
        -0.07114500552415848,
        0.02519247867166996,
        -0.07409966737031937,
        0.03091518208384514,
        -0.06691818684339523,
        -0.05622740089893341,
        -0.09662195295095444,
        -0.12036310881376266,
        0.11518343538045883,
        -0.01822747476398945,
        -0.004004233982414007,
        -0.07183241844177246,
        0.10060371458530426,
        -0.08261498063802719,
        -0.058379072695970535,
        -0.11267201602458954,
        -0.12137064337730408,
        0.12814193964004517,
        -0.11145684868097305,
        -0.019927017390727997,
        -0.04177997633814812,
        0.052869074046611786,
        0.03860583156347275,
        -0.11064787209033966,
        0.12962587177753448,
        -0.14377932250499725,
        0.014275839552283287,
        -0.012058522552251816,
        -0.03344887122511864,
        0.09836126118898392,
        0.1218666210770607,
        0.018801908940076828,
        -0.05097988247871399,
        0.10730770230293274,
        0.09068291634321213,
        0.02592419646680355,
        -0.03947797045111656,
        0.0060852593742311,
        0.12864720821380615,
        0.015652624890208244,
        -0.028443899005651474,
        -0.12220415472984314,
        -0.07734798640012741,
        0.1042456179857254,
        -0.005082643590867519,
        -0.009611878544092178,
        0.05619937181472778,
        -0.09496358782052994,
        -0.00975039042532444,
        -0.04059557616710663,
        0.07552043348550797,
        0.11746536195278168,
        0.0906306579709053,
        0.10761168599128723,
        -0.12899476289749146,
        -0.051242247223854065,
        0.017091870307922363,
        -0.12259379774332047,
        0.03915483504533768,
        -0.09461063146591187,
        0.06185044348239899,
        0.11681994050741196,
        -0.12347343564033508,
        0.12094655632972717,
        0.06734810769557953,
        -0.09525148570537567,
        0.1381566822528839,
        -0.12500908970832825,
        -0.097170889377594,
        -0.071800097823143,
        -0.0073090288788080215,
        0.02591872587800026,
        -0.04235883429646492,
        -0.13680996000766754,
        -0.016661107540130615,
        0.10951121896505356,
        0.11113087087869644,
        0.0722542256116867,
        0.020956216380000114,
        0.035864219069480896,
        -0.1112712100148201,
        0.05844798684120178,
        -0.1436499059200287,
        -0.05960705876350403,
        -0.037931494414806366,
        0.10599172115325928,
        -0.00420752726495266,
        -0.06574710458517075,
        0.025217032060027122,
        -0.11976702511310577,
        -0.038214437663555145,
        0.039974600076675415,
        -0.009559244848787785,
        -0.015158286318182945,
        0.08821553736925125,
        -0.1096428632736206,
        -0.07287973165512085,
        0.13971464335918427,
        0.028721574693918228,
        -0.023369841277599335,
        0.07476486265659332,
        0.086831234395504,
        -0.024118972942233086,
        -0.06012256070971489,
        -0.023593077436089516,
        0.05241018161177635,
        -0.018426552414894104,
        0.08400455117225647,
        -0.11770515143871307,
        -0.07081658393144608,
        0.11003425717353821,
        0.01893549971282482,
        0.02906549721956253,
        0.04747195169329643,
        -0.03410598635673523,
        -0.05772170424461365,
        0.04140816628932953,
        -0.03825392574071884,
        -0.0596255399286747,
        0.01906953752040863,
        0.03491256758570671,
        -0.01303247269243002,
        -0.0976148173213005,
        -0.021824156865477562,
        -0.08180007338523865,
        0.07596728205680847,
        -0.09563802182674408,
        0.11508557200431824,
        0.057487957179546356,
        -0.12359871715307236,
        0.10711304098367691,
        -0.1427406370639801,
        -0.008391963317990303,
        -0.09011818468570709,
        -0.12417003512382507,
        0.014300961047410965,
        -0.0699833333492279,
        0.10433235764503479,
        -0.11346517503261566,
        0.11980347335338593,
        0.08707842230796814,
        0.12641948461532593,
        -0.04226667806506157,
        -0.08847242593765259,
        -0.09589283168315887,
        0.12002686411142349,
        -0.07179000228643417,
        -0.017771918326616287,
        -0.022247692570090294,
        0.024831505492329597,
        -0.1184404194355011,
        0.11638504266738892,
        -0.10680092126131058,
        0.14196456968784332,
        -0.05647701397538185,
        -0.06443549692630768,
        -0.019839556887745857,
        0.0427175872027874,
        -0.02674354799091816,
        -0.14405587315559387,
        0.10152468830347061,
        0.1429646611213684,
        0.0728224515914917,
        0.14123809337615967,
        0.039339251816272736,
        -0.01131025142967701,
        -0.11496419459581375,
        -0.12615174055099487,
        -0.09937597066164017,
        -0.03662176430225372,
        0.08404877036809921,
        -0.059551361948251724,
        -0.00560595840215683,
        -0.0020370460115373135,
        -0.0943504199385643,
        -0.0039072418585419655,
        0.13936565816402435,
        0.11536245048046112,
        0.10993026196956635,
        -0.014235490933060646,
        0.002559827407822013,
        0.07890742272138596,
        -0.048010509461164474,
        -0.05849585309624672,
        0.12349360436201096,
        0.008240426890552044,
        -0.09745768457651138,
        0.12161958962678909,
        0.023956751450896263,
        0.07722890377044678,
        -0.12535864114761353,
        0.02678496390581131,
        0.08828414231538773,
        -0.020822865888476372,
        -0.08204212784767151,
        0.1154787540435791,
        0.06713443994522095,
        0.0411081537604332,
        0.03413539007306099,
        0.0031857609283179045,
        0.08277279883623123,
        -0.03155331686139107,
        -0.08496354520320892,
        0.055115025490522385,
        0.03850863128900528,
        0.05495632812380791,
        -0.01603173278272152,
        -0.019154226407408714,
        -0.011471802368760109,
        0.03805932030081749,
        -0.11075867712497711,
        -0.1345311850309372,
        0.054010529071092606,
        -0.5475037097930908,
        -0.08412277698516846,
        0.27722859382629395,
        0.14025938510894775,
        0.6446620225906372,
        0.13108348846435547,
        0.2475752830505371,
        -0.08951091766357422,
        0.052187953144311905,
        0.12963944673538208,
        0.24119924008846283,
        -0.3349960744380951,
        -0.14727731049060822,
        -0.31725701689720154,
        -0.1409597098827362,
        0.21551892161369324,
        -0.33499249815940857,
        -0.31679025292396545,
        0.2047155499458313,
        -0.20878638327121735,
        0.25840017199516296,
        0.11016339063644409,
        0.08874773234128952,
        0.28086721897125244,
        -0.3274948000907898,
        0.25890544056892395,
        0.11465653777122498,
        -0.23691952228546143,
        0.08602378517389297,
        -0.09853515774011612,
        -0.14191290736198425,
        -0.038291044533252716,
        -0.16668803989887238,
        0.309160053730011,
        0.3043041527271271,
        -0.03771624341607094,
        -0.31352290511131287,
        -0.021628793329000473,
        0.023359427228569984,
        0.2363225221633911,
        0.011375265195965767,
        0.10290030390024185,
        0.09381015598773956,
        -0.20060673356056213,
        -0.21930445730686188,
        -0.315995454788208,
        -0.0027763815596699715,
        0.10950589925050735,
        -0.025139329954981804,
        0.3431822955608368,
        -0.06744473427534103,
        -0.23070311546325684,
        0.058925971388816833,
        -0.0995645523071289,
        -0.04846841096878052,
        0.3425755202770233,
        -0.010144324973225594,
        0.3088436424732208,
        0.04721546918153763,
        -0.1315295696258545,
        0.2592109441757202,
        -0.2013942003250122,
        0.011697984300553799,
        0.07946960628032684,
        0.15868684649467468,
        -0.3262093961238861,
        0.017343807965517044,
        -0.09154193848371506,
        0.22923211753368378,
        0.11895088106393814,
        0.14170314371585846,
        0.2125774472951889,
        -0.0791538879275322,
        -0.022651992738246918,
        0.28363949060440063,
        -0.28496018052101135,
        -0.2443830668926239,
        0.025864213705062866,
        -0.14005224406719208,
        0.020248357206583023,
        0.12750203907489777,
        -0.01673213578760624,
        -0.12306719273328781,
        -0.06561262160539627,
        0.132554829120636,
        -0.03170942887663841,
        -0.06328883022069931,
        0.06497016549110413,
        0.017868446186184883,
        -0.12725947797298431,
        0.12020239979028702,
        0.08128006011247635,
        0.1254560649394989,
        0.06316201388835907,
        -0.048663973808288574,
        -0.04711860045790672,
        0.0699491798877716,
        -0.027980392798781395,
        0.02829788625240326,
        -0.13986138999462128,
        -0.07134927809238434,
        0.05361383780837059,
        -0.0071156807243824005,
        -0.06939037889242172,
        -0.1259009689092636,
        0.09173516929149628,
        -0.029020346701145172,
        -0.1418164223432541,
        0.139254629611969,
        0.07023850083351135,
        -0.08633393049240112,
        -0.1053420752286911,
        0.13947522640228271,
        0.0006026534247212112,
        -0.08680784702301025,
        0.08305858075618744,
        -0.030065376311540604,
        0.009887559339404106,
        -0.07519029080867767,
        -0.12225315719842911,
        -0.09585785120725632,
        -0.015848692506551743,
        -0.10449284315109253,
        0.1422603726387024,
        0.0015621843049302697,
        -0.05525701120495796,
        0.057045117020606995,
        -0.12796518206596375,
        -0.07382752746343613,
        0.05421334132552147,
        -0.12263824045658112,
        0.07193826884031296,
        0.012132320553064346,
        -0.1203497052192688,
        -0.14324524998664856,
        0.04561798274517059,
        0.06822378933429718,
        -0.028853995725512505,
        -0.127631276845932,
        -0.08318843692541122,
        0.01534069050103426,
        0.005251145921647549,
        0.03694708272814751,
        0.025521790608763695,
        -0.007565644569694996,
        0.07617076486349106,
        0.14000940322875977,
        0.1202063038945198,
        0.1311560720205307,
        -0.04871440678834915,
        -0.04926454648375511,
        -0.015963923186063766,
        0.04266024008393288,
        0.058424774557352066,
        -0.01286569144576788,
        -0.09323141723871231,
        -0.1089027002453804,
        0.1389564573764801,
        -0.038805991411209106,
        -0.0195099338889122,
        -0.08845874667167664,
        -0.07155676931142807,
        0.031702253967523575,
        0.06079302728176117,
        -0.057060033082962036,
        -0.053126655519008636,
        0.11433833092451096,
        -0.07433625310659409,
        -0.1076880618929863,
        -0.022518916055560112,
        0.13734357059001923,
        0.031406253576278687,
        0.019943585619330406,
        -0.017971821129322052,
        0.09019492566585541,
        -0.07154104113578796,
        0.09786244481801987,
        0.034098897129297256,
        0.01604790799319744,
        0.019870424643158913,
        -0.0890166163444519,
        0.107200488448143,
        0.07580722868442535,
        -0.11288893222808838,
        -0.13439005613327026,
        -0.03715669363737106,
        0.09589097648859024,
        -0.07106194645166397,
        0.13377739489078522,
        -0.07256942987442017,
        -0.13038046658039093,
        0.0634922906756401,
        -0.08722954243421555,
        -0.02275313064455986,
        -0.04501945525407791,
        -0.011468946002423763,
        -0.12577186524868011,
        -0.13238659501075745,
        0.06204736977815628,
        -0.01635567843914032,
        -0.0870688185095787,
        -0.0036769513972103596,
        -0.13174158334732056,
        0.038313306868076324,
        0.0685463398694992,
        0.1399809569120407,
        -0.11758792400360107,
        -0.017501967027783394,
        0.07833126187324524,
        0.13227970898151398,
        -0.1026921421289444,
        0.061338022351264954,
        0.05959179624915123,
        0.08701690286397934,
        -0.09950865060091019,
        0.103001669049263,
        -0.06286820024251938,
        -0.08884680271148682,
        0.02865925431251526,
        0.12227415293455124,
        -0.09558344632387161,
        0.07706297934055328,
        -0.0165303573012352,
        0.04607794061303139,
        0.11259346455335617,
        0.03919057175517082,
        -0.11982276290655136,
        -0.04345656558871269,
        0.028647707775235176,
        -0.12176178395748138,
        0.023996084928512573,
        -0.07750479131937027,
        -0.028691016137599945,
        0.051635462790727615,
        -0.11616571247577667,
        -0.09266678988933563,
        0.06583297997713089,
        -0.14275571703910828,
        0.09933142364025116,
        -0.11129569262266159,
        -0.002324099885299802,
        0.029630158096551895,
        0.056954506784677505,
        -0.08958566188812256,
        0.019423918798565865,
        0.06214991956949234,
        0.12379970401525497,
        -0.10862115025520325,
        -0.07176059484481812,
        0.042047880589962006,
        -0.004633625969290733,
        -0.0974029004573822,
        -0.12148181349039078,
        -0.12816154956817627,
        -0.10099994391202927,
        -0.0614544041454792,
        -0.10022792965173721,
        -0.12661971151828766,
        0.011266839690506458,
        0.08464767038822174,
        -0.06805327534675598,
        0.014433433301746845,
        -0.001779346028342843,
        0.06746818870306015,
        -0.10009908676147461,
        0.006852646823972464,
        0.134723961353302,
        0.1030452698469162,
        -0.14305537939071655,
        -0.021728508174419403,
        0.0013454699655994773,
        -0.04765970632433891,
        -0.09482775628566742,
        -0.10043387115001678,
        0.09590759873390198,
        -0.04672877490520477,
        -0.009288725443184376,
        0.04235308617353439,
        -0.08859297633171082,
        0.012865071184933186,
        0.08585379272699356,
        -0.08439246565103531,
        0.04199318215250969,
        -0.0049300058744847775,
        0.07936197519302368,
        0.09590945392847061,
        0.03829357028007507,
        0.004361266270279884,
        -0.12425020337104797,
        0.05746861547231674,
        0.08799770474433899,
        -0.05242706090211868,
        -0.14331890642642975,
        0.11696609109640121,
        -0.0338800810277462,
        0.028877947479486465,
        -0.04057449847459793,
        0.0920482724905014,
        0.14076943695545197,
        0.0904763713479042,
        -0.0459345281124115,
        0.10115031152963638,
        0.07042689621448517,
        0.014081889763474464,
        -0.11626112461090088,
        -0.0619775652885437,
        -0.14280566573143005,
        0.09653781354427338,
        0.14267635345458984,
        0.08407863974571228,
        0.04611865058541298,
        0.03411293774843216,
        0.138945534825325,
        -0.07317611575126648,
        -0.0484577901661396,
        -0.12959758937358856,
        -0.0142928222194314,
        0.009900911711156368,
        0.039510972797870636,
        -0.10041335970163345,
        -0.016702644526958466,
        -0.11893428862094879,
        -0.11740990728139877,
        0.018813489004969597,
        -0.14089544117450714,
        0.03843393921852112,
        -0.13296356797218323,
        -0.10043380409479141,
        -0.029949473217129707,
        -0.1377386450767517,
        0.11657167971134186,
        0.11826389282941818,
        -0.07539169490337372,
        0.030235840007662773,
        0.07383948564529419,
        0.045866597443819046,
        -0.019334858283400536,
        -0.13614080846309662,
        0.10495345294475555,
        -0.12659801542758942,
        -0.026731278747320175,
        0.008953476324677467,
        -0.047536421567201614,
        -0.05279214680194855,
        -0.12474669516086578,
        0.007952891290187836,
        -0.016388816758990288,
        0.12583383917808533,
        -0.04751897603273392,
        0.11156067252159119,
        0.006832945626229048,
        -0.06484829634428024,
        -0.034326158463954926,
        -0.016379594802856445,
        0.001495079486630857,
        -0.023779990151524544,
        0.042835503816604614,
        0.11886431276798248,
        0.022687487304210663,
        0.052280910313129425,
        0.08913137763738632,
        0.031112229451537132,
        0.06653539836406708,
        0.07571236789226532,
        0.13510186970233917,
        -0.13173022866249084,
        0.049391064792871475,
        -0.006540144328027964,
        -0.02592163346707821,
        -0.05564820021390915,
        0.08677582442760468,
        0.1320381909608841,
        -0.11779242753982544,
        0.07798269391059875,
        0.09952792525291443,
        0.025226444005966187,
        0.0017002654494717717,
        0.11107148975133896,
        0.004279398359358311,
        -0.0360013023018837,
        -0.01065854262560606,
        0.04630854353308678,
        0.03613334149122238,
        -0.007787469308823347,
        0.04556254297494888,
        0.0388730987906456,
        -0.11692193895578384,
        0.03596556559205055,
        0.08831209689378738,
        0.016552897170186043,
        -0.013174666091799736,
        0.110567107796669,
        -0.12610501050949097,
        -0.06588093191385269,
        -0.06523924320936203,
        0.12471518665552139,
        -0.13960643112659454,
        0.01431507058441639,
        -0.1398182213306427,
        -0.00474636210128665,
        0.053800009191036224,
        -0.03375399485230446,
        0.14011357724666595,
        0.00045947913895361125,
        -0.07358764111995697,
        0.03721971809864044,
        0.0750647708773613,
        -0.00028676149668172,
        0.1234770193696022,
        -0.09135356545448303,
        0.06158572435379028,
        0.08196002244949341,
        0.07169120013713837,
        -5.294402581057511e-05,
        0.04120320454239845,
        -0.11323445290327072,
        -0.11326972395181656,
        -0.00897152628749609,
        -0.018090270459651947,
        0.107174351811409,
        0.10480736941099167,
        0.09786774963140488,
        -0.06611136347055435,
        -0.11331033706665039,
        -0.13538847863674164,
        0.05223732814192772,
        -0.13006001710891724,
        -0.14408619701862335,
        -0.07294534146785736,
        -0.12186475843191147,
        -0.05688167363405228,
        -0.09086721390485764,
        -0.0740501806139946,
        0.13722524046897888,
        -0.027199946343898773,
        0.11973357945680618,
        0.0032024856191128492,
        -0.018560899421572685,
        -0.042259469628334045,
        -0.10317641496658325,
        -0.11596772074699402,
        0.09994247555732727,
        -0.04447900503873825,
        -0.14072619378566742,
        0.13246285915374756,
        0.0026773985009640455,
        -0.09658355265855789,
        -0.11345705389976501,
        -0.12121253460645676,
        -0.12656313180923462,
        0.13061413168907166,
        0.09951981902122498,
        0.011805382557213306,
        -0.12301519513130188,
        -0.03775174170732498,
        -0.13558994233608246,
        0.04974162578582764,
        -0.03832445666193962,
        -0.03088744543492794,
        -0.04503526911139488,
        0.06767287850379944,
        0.0781283974647522,
        0.03161852806806564,
        -0.01807466335594654,
        -0.014264019206166267,
        -0.002522110939025879,
        -0.10748299956321716,
        0.14084024727344513,
        -0.06225026771426201,
        0.08397657424211502,
        -0.08091533184051514,
        0.000968959997408092,
        0.342327356338501,
        -0.9181804656982422,
        0.4586998224258423,
        -0.7654447555541992,
        0.13954627513885498,
        -0.19829928874969482,
        0.5732232332229614,
        0.9719010591506958,
        0.07967882603406906,
        -0.010095392353832722,
        -0.17516617476940155,
        0.13181747496128082,
        -0.17017321288585663,
        0.14604122936725616,
        -0.15323978662490845,
        0.23982024192810059,
        0.2711881697177887,
        0.21679361164569855,
        0.0035415575839579105,
        0.16395814716815948,
        -0.32216936349868774,
        0.2867222726345062,
        -0.09185749292373657,
        0.12889020144939423,
        -0.05987022817134857,
        -0.11871860921382904,
        -0.16603060066699982,
        0.22805002331733704,
        -0.19235046207904816,
        -0.06234753876924515,
        0.178350031375885,
        0.03563351556658745,
        -0.29747962951660156,
        -0.35156455636024475,
        -0.17188812792301178,
        0.3260881006717682,
        -0.2513855993747711,
        0.19485574960708618,
        0.25307905673980713,
        -0.14654694497585297,
        -0.1561315655708313,
        -0.2543591260910034,
        0.055147845298051834,
        -0.04942556470632553,
        0.01717732660472393,
        0.15335755050182343,
        0.1484358012676239,
        -0.11154504865407944,
        0.024282442405819893,
        0.0839853510260582,
        0.007525825407356024,
        0.07074964046478271,
        -0.14322084188461304,
        0.28979840874671936,
        -0.036264076828956604,
        -0.04523549601435661,
        -0.3173186480998993,
        -0.2562795877456665,
        0.010997883044183254,
        -0.05467824265360832,
        -0.17775951325893402,
        0.18506774306297302,
        -0.031652115285396576,
        0.12434053421020508,
        0.2977861166000366,
        -0.1625450998544693,
        -0.17400915920734406,
        -0.07104554772377014,
        -0.02993926592171192,
        -0.17683418095111847,
        -0.08488257229328156,
        -0.0101908128708601,
        0.15859028697013855,
        0.3270944654941559,
        0.261809378862381,
        0.03741830959916115,
        -0.02227979339659214,
        0.09056366980075836,
        -0.014432639814913273,
        -0.04639921337366104,
        0.049633417278528214,
        -0.11743307113647461,
        -0.12274996191263199,
        0.0005846555577591062,
        -0.043748438358306885,
        -0.07139244675636292,
        -0.13437001407146454,
        0.09668594598770142,
        -0.005750973708927631,
        -0.07754899561405182,
        -0.058795057237148285,
        0.03794679418206215,
        -0.10467863082885742,
        0.009270229376852512,
        -0.0017799482448026538,
        0.04917042702436447,
        0.05725809559226036,
        -0.09430717676877975,
        0.062323637306690216,
        0.10899189859628677,
        0.009292373433709145,
        0.07353340089321136,
        -0.0546443946659565,
        0.02866966277360916,
        0.042175207287073135,
        -0.06666695326566696,
        0.08911652863025665,
        -0.13647077977657318,
        -0.05421840026974678,
        -0.08492644876241684,
        -0.08568413555622101,
        -0.08746155351400375,
        -0.13600794970989227,
        0.024770749732851982,
        -0.028552385047078133,
        -0.12153378129005432,
        -5.9362006140872836e-05,
        -0.02404395304620266,
        0.05954308435320854,
        -0.11305760592222214,
        -0.0406058132648468,
        0.02970963530242443,
        0.06118278577923775,
        0.01091911643743515,
        0.03911522775888443,
        0.14428474009037018,
        -0.05000027269124985,
        0.09837253391742706,
        0.12433069199323654,
        -0.1276833564043045,
        0.03491442650556564,
        0.08175992965698242,
        -0.02251480519771576,
        0.07965966314077377,
        0.004909478593617678,
        0.10988175868988037,
        0.003107798984274268,
        -0.09240814298391342,
        0.1096155047416687,
        0.0429266095161438,
        0.12279798090457916,
        0.03583083674311638,
        0.07664427906274796,
        0.08999612182378769,
        0.024304525926709175,
        -0.033553555607795715,
        0.02981068752706051,
        -0.10063936561346054,
        0.004931038245558739,
        -0.046392183750867844,
        0.009125643409788609,
        -0.11428051441907883,
        0.08819352835416794,
        -0.13316765427589417,
        0.06181131675839424,
        0.0950550064444542,
        -0.13228479027748108,
        0.13041044771671295,
        -0.10729824006557465,
        -0.02834305167198181,
        0.0747954249382019,
        -0.04576984420418739,
        0.12863147258758545,
        -0.06367490440607071,
        -0.019324535503983498,
        -0.09435132890939713,
        -0.06696242839097977,
        0.140851229429245,
        0.1085510179400444,
        0.010627657175064087,
        0.011867789551615715,
        -0.12248416990041733,
        0.10896730422973633,
        -0.02164030820131302,
        -0.06020231544971466,
        -0.11486708372831345,
        0.11867163330316544,
        0.06844306737184525,
        0.08693868666887283,
        0.014945494942367077,
        -0.09794319421052933,
        0.059125643223524094,
        0.016646327450871468,
        0.04843604192137718,
        -0.035941269248723984,
        -0.06811510026454926,
        0.1184912919998169,
        0.04838435351848602,
        -0.058580733835697174,
        0.01288919523358345,
        -0.03137543424963951,
        -0.0123432707041502,
        0.08093862980604172,
        -0.11488091200590134,
        0.1306302696466446,
        0.09714724868535995,
        0.000124023572425358,
        -0.05903897434473038,
        0.029429204761981964,
        -0.09553824365139008,
        0.09375458210706711,
        -0.07633446156978607,
        0.027579260990023613,
        -0.14200375974178314,
        0.06911960244178772,
        0.09770908951759338,
        0.1083369329571724,
        0.011781568638980389,
        0.08522229641675949,
        0.04921349510550499,
        0.09679508209228516,
        0.08145081251859665,
        -0.12628498673439026,
        0.015216202475130558,
        -0.049207162111997604,
        -0.06892063468694687,
        0.10103079676628113,
        -0.02065821923315525,
        0.022421855479478836,
        0.0908791720867157,
        0.0971568301320076,
        0.07702893018722534,
        -0.025199756026268005,
        -0.12866175174713135,
        -0.13856185972690582,
        0.045369554311037064,
        -0.00171287776902318,
        -0.09119420498609543,
        0.06303694099187851,
        0.13101375102996826,
        0.08348122239112854,
        -0.02036149427294731,
        0.019503619521856308,
        -0.09206780791282654,
        0.06812629848718643,
        -0.11185421049594879,
        0.09964955598115921,
        -0.06592606753110886,
        -0.057246170938014984,
        -0.12089881300926208,
        -0.03490380942821503,
        -0.013961651362478733,
        -0.06652964651584625,
        0.10274651646614075,
        0.08283587545156479,
        -0.12738710641860962,
        -0.014438198879361153,
        0.04852818325161934,
        0.13925649225711823,
        -0.034512948244810104,
        0.08861315995454788,
        -0.008086206391453743,
        -0.05535966530442238,
        0.08832896500825882,
        -0.1286177784204483,
        0.12092606723308563,
        0.14416851103305817,
        -0.03940766677260399,
        0.05701650306582451,
        0.14393404126167297,
        0.043515585362911224,
        0.05644559487700462,
        0.052999842911958694,
        -0.05905216932296753,
        0.035232555121183395,
        -0.07692811638116837,
        0.12325187027454376,
        -0.06185070052742958,
        0.032996293157339096,
        -0.041811518371105194,
        0.07218287140130997,
        0.002379160374403,
        0.07936447113752365,
        -0.03908420354127884,
        -0.08469896763563156,
        0.055338017642498016,
        -0.08123046904802322,
        -0.11850555986166,
        0.05576630309224129,
        -0.08680915832519531,
        -0.054252829402685165,
        -0.03604041039943695,
        0.010249048471450806,
        -0.04998975992202759,
        -0.05194736272096634,
        -0.03627758473157883,
        0.10115058720111847,
        0.043218620121479034,
        -0.06948957592248917,
        -0.09977047890424728,
        0.0033443348947912455,
        0.046240732073783875,
        -0.0030204076319932938,
        0.08449381589889526,
        0.12140379846096039,
        0.04230403155088425,
        0.047602273523807526,
        0.08373939990997314,
        -0.04944710433483124,
        0.02560281567275524,
        0.11669467389583588,
        -0.06911807507276535,
        0.011233665980398655,
        -0.056430090218782425,
        -0.11098458617925644,
        0.07645143568515778,
        0.11533354967832565,
        -0.07797626405954361,
        0.05409583821892738,
        0.04426020756363869,
        0.05635871738195419,
        0.07945264130830765,
        0.1347522884607315,
        0.10955227166414261,
        -0.12629686295986176,
        -0.05658426135778427,
        0.07665808498859406,
        -0.0823981836438179,
        0.028341658413410187,
        -0.06187809631228447,
        0.028666945174336433,
        0.07042814791202545,
        0.045367009937763214,
        0.10485196858644485,
        -0.017368875443935394,
        0.07835669815540314,
        0.046662718057632446,
        -0.04548826068639755,
        -0.10194075852632523,
        0.13205145299434662,
        -0.04303447902202606,
        0.10871869325637817,
